digraph Tree {
node [shape=box] ;
0 [label="X[7] <= 0.4\ngini = 0.73\nsamples = 171\nvalue = [57, 62, 15, 9, 7, 21]"] ;
1 [label="X[3] <= 1.405\ngini = 0.679\nsamples = 150\nvalue = [56, 61, 15, 9, 7, 2]"] ;
0 -> 1 [labeldistance=2.5, labelangle=45, headlabel="True"] ;
2 [label="X[2] <= 3.29\ngini = 0.588\nsamples = 87\nvalue = [50, 22, 11, 0, 3, 1]"] ;
1 -> 2 ;
3 [label="X[1] <= 14.495\ngini = 0.477\nsamples = 16\nvalue = [2, 11, 0, 0, 3, 0]"] ;
2 -> 3 ;
4 [label="X[6] <= 10.28\ngini = 0.357\nsamples = 14\nvalue = [2, 11, 0, 0, 1, 0]"] ;
3 -> 4 ;
5 [label="X[4] <= 72.8\ngini = 0.611\nsamples = 6\nvalue = [2, 3, 0, 0, 1, 0]"] ;
4 -> 5 ;
6 [label="gini = 0.0\nsamples = 1\nvalue = [0, 0, 0, 0, 1, 0]"] ;
5 -> 6 ;
7 [label="X[0] <= 1.518\ngini = 0.48\nsamples = 5\nvalue = [2, 3, 0, 0, 0, 0]"] ;
5 -> 7 ;
8 [label="gini = 0.0\nsamples = 2\nvalue = [0, 2, 0, 0, 0, 0]"] ;
7 -> 8 ;
9 [label="X[6] <= 9.24\ngini = 0.444\nsamples = 3\nvalue = [2, 1, 0, 0, 0, 0]"] ;
7 -> 9 ;
10 [label="gini = 0.0\nsamples = 2\nvalue = [2, 0, 0, 0, 0, 0]"] ;
9 -> 10 ;
11 [label="gini = 0.0\nsamples = 1\nvalue = [0, 1, 0, 0, 0, 0]"] ;
9 -> 11 ;
12 [label="gini = 0.0\nsamples = 8\nvalue = [0, 8, 0, 0, 0, 0]"] ;
4 -> 12 ;
13 [label="gini = 0.0\nsamples = 2\nvalue = [0, 0, 0, 0, 2, 0]"] ;
3 -> 13 ;
14 [label="X[0] <= 1.517\ngini = 0.495\nsamples = 71\nvalue = [48, 11, 11, 0, 0, 1]"] ;
2 -> 14 ;
15 [label="X[0] <= 1.516\ngini = 0.595\nsamples = 11\nvalue = [3, 2, 6, 0, 0, 0]"] ;
14 -> 15 ;
16 [label="gini = 0.0\nsamples = 3\nvalue = [3, 0, 0, 0, 0, 0]"] ;
15 -> 16 ;
17 [label="X[2] <= 3.54\ngini = 0.375\nsamples = 8\nvalue = [0, 2, 6, 0, 0, 0]"] ;
15 -> 17 ;
18 [label="gini = 0.0\nsamples = 5\nvalue = [0, 0, 5, 0, 0, 0]"] ;
17 -> 18 ;
19 [label="X[8] <= 0.05\ngini = 0.444\nsamples = 3\nvalue = [0, 2, 1, 0, 0, 0]"] ;
17 -> 19 ;
20 [label="gini = 0.0\nsamples = 2\nvalue = [0, 2, 0, 0, 0, 0]"] ;
19 -> 20 ;
21 [label="gini = 0.0\nsamples = 1\nvalue = [0, 0, 1, 0, 0, 0]"] ;
19 -> 21 ;
22 [label="X[2] <= 3.825\ngini = 0.408\nsamples = 60\nvalue = [45, 9, 5, 0, 0, 1]"] ;
14 -> 22 ;
23 [label="X[8] <= 0.23\ngini = 0.309\nsamples = 51\nvalue = [42, 4, 4, 0, 0, 1]"] ;
22 -> 23 ;
24 [label="X[3] <= 1.155\ngini = 0.233\nsamples = 47\nvalue = [41, 3, 2, 0, 0, 1]"] ;
23 -> 24 ;
25 [label="X[3] <= 1.055\ngini = 0.421\nsamples = 19\nvalue = [14, 3, 2, 0, 0, 0]"] ;
24 -> 25 ;
26 [label="X[0] <= 1.521\ngini = 0.165\nsamples = 11\nvalue = [10, 0, 1, 0, 0, 0]"] ;
25 -> 26 ;
27 [label="X[6] <= 8.945\ngini = 0.5\nsamples = 2\nvalue = [1, 0, 1, 0, 0, 0]"] ;
26 -> 27 ;
28 [label="gini = 0.0\nsamples = 1\nvalue = [1, 0, 0, 0, 0, 0]"] ;
27 -> 28 ;
29 [label="gini = 0.0\nsamples = 1\nvalue = [0, 0, 1, 0, 0, 0]"] ;
27 -> 29 ;
30 [label="gini = 0.0\nsamples = 9\nvalue = [9, 0, 0, 0, 0, 0]"] ;
26 -> 30 ;
31 [label="X[2] <= 3.61\ngini = 0.594\nsamples = 8\nvalue = [4, 3, 1, 0, 0, 0]"] ;
25 -> 31 ;
32 [label="gini = 0.0\nsamples = 4\nvalue = [4, 0, 0, 0, 0, 0]"] ;
31 -> 32 ;
33 [label="X[0] <= 1.518\ngini = 0.375\nsamples = 4\nvalue = [0, 3, 1, 0, 0, 0]"] ;
31 -> 33 ;
34 [label="gini = 0.0\nsamples = 1\nvalue = [0, 0, 1, 0, 0, 0]"] ;
33 -> 34 ;
35 [label="gini = 0.0\nsamples = 3\nvalue = [0, 3, 0, 0, 0, 0]"] ;
33 -> 35 ;
36 [label="X[0] <= 1.521\ngini = 0.069\nsamples = 28\nvalue = [27, 0, 0, 0, 0, 1]"] ;
24 -> 36 ;
37 [label="gini = 0.0\nsamples = 27\nvalue = [27, 0, 0, 0, 0, 0]"] ;
36 -> 37 ;
38 [label="gini = 0.0\nsamples = 1\nvalue = [0, 0, 0, 0, 0, 1]"] ;
36 -> 38 ;
39 [label="X[0] <= 1.519\ngini = 0.625\nsamples = 4\nvalue = [1, 1, 2, 0, 0, 0]"] ;
23 -> 39 ;
40 [label="X[6] <= 8.72\ngini = 0.5\nsamples = 2\nvalue = [1, 1, 0, 0, 0, 0]"] ;
39 -> 40 ;
41 [label="gini = 0.0\nsamples = 1\nvalue = [0, 1, 0, 0, 0, 0]"] ;
40 -> 41 ;
42 [label="gini = 0.0\nsamples = 1\nvalue = [1, 0, 0, 0, 0, 0]"] ;
40 -> 42 ;
43 [label="gini = 0.0\nsamples = 2\nvalue = [0, 0, 2, 0, 0, 0]"] ;
39 -> 43 ;
44 [label="X[3] <= 1.14\ngini = 0.568\nsamples = 9\nvalue = [3, 5, 1, 0, 0, 0]"] ;
22 -> 44 ;
45 [label="X[5] <= 0.03\ngini = 0.375\nsamples = 4\nvalue = [3, 0, 1, 0, 0, 0]"] ;
44 -> 45 ;
46 [label="gini = 0.0\nsamples = 1\nvalue = [0, 0, 1, 0, 0, 0]"] ;
45 -> 46 ;
47 [label="gini = 0.0\nsamples = 3\nvalue = [3, 0, 0, 0, 0, 0]"] ;
45 -> 47 ;
48 [label="gini = 0.0\nsamples = 5\nvalue = [0, 5, 0, 0, 0, 0]"] ;
44 -> 48 ;
49 [label="X[2] <= 1.985\ngini = 0.579\nsamples = 63\nvalue = [6, 39, 4, 9, 4, 1]"] ;
1 -> 49 ;
50 [label="X[1] <= 13.71\ngini = 0.473\nsamples = 13\nvalue = [0, 2, 0, 9, 2, 0]"] ;
49 -> 50 ;
51 [label="X[0] <= 1.524\ngini = 0.18\nsamples = 10\nvalue = [0, 1, 0, 9, 0, 0]"] ;
50 -> 51 ;
52 [label="gini = 0.0\nsamples = 9\nvalue = [0, 0, 0, 9, 0, 0]"] ;
51 -> 52 ;
53 [label="gini = 0.0\nsamples = 1\nvalue = [0, 1, 0, 0, 0, 0]"] ;
51 -> 53 ;
54 [label="X[0] <= 1.52\ngini = 0.444\nsamples = 3\nvalue = [0, 1, 0, 0, 2, 0]"] ;
50 -> 54 ;
55 [label="gini = 0.0\nsamples = 2\nvalue = [0, 0, 0, 0, 2, 0]"] ;
54 -> 55 ;
56 [label="gini = 0.0\nsamples = 1\nvalue = [0, 1, 0, 0, 0, 0]"] ;
54 -> 56 ;
57 [label="X[6] <= 8.345\ngini = 0.43\nsamples = 50\nvalue = [6, 37, 4, 0, 2, 1]"] ;
49 -> 57 ;
58 [label="X[8] <= 0.225\ngini = 0.17\nsamples = 32\nvalue = [3, 29, 0, 0, 0, 0]"] ;
57 -> 58 ;
59 [label="X[6] <= 7.805\ngini = 0.067\nsamples = 29\nvalue = [1, 28, 0, 0, 0, 0]"] ;
58 -> 59 ;
60 [label="X[6] <= 7.43\ngini = 0.5\nsamples = 2\nvalue = [1, 1, 0, 0, 0, 0]"] ;
59 -> 60 ;
61 [label="gini = 0.0\nsamples = 1\nvalue = [0, 1, 0, 0, 0, 0]"] ;
60 -> 61 ;
62 [label="gini = 0.0\nsamples = 1\nvalue = [1, 0, 0, 0, 0, 0]"] ;
60 -> 62 ;
63 [label="gini = 0.0\nsamples = 27\nvalue = [0, 27, 0, 0, 0, 0]"] ;
59 -> 63 ;
64 [label="X[3] <= 1.5\ngini = 0.444\nsamples = 3\nvalue = [2, 1, 0, 0, 0, 0]"] ;
58 -> 64 ;
65 [label="gini = 0.0\nsamples = 1\nvalue = [0, 1, 0, 0, 0, 0]"] ;
64 -> 65 ;
66 [label="gini = 0.0\nsamples = 2\nvalue = [2, 0, 0, 0, 0, 0]"] ;
64 -> 66 ;
67 [label="X[5] <= 0.035\ngini = 0.71\nsamples = 18\nvalue = [3, 8, 4, 0, 2, 1]"] ;
57 -> 67 ;
68 [label="gini = 0.0\nsamples = 2\nvalue = [0, 0, 0, 0, 2, 0]"] ;
67 -> 68 ;
69 [label="X[2] <= 3.485\ngini = 0.648\nsamples = 16\nvalue = [3, 8, 4, 0, 0, 1]"] ;
67 -> 69 ;
70 [label="X[2] <= 3.15\ngini = 0.542\nsamples = 12\nvalue = [0, 7, 4, 0, 0, 1]"] ;
69 -> 70 ;
71 [label="X[1] <= 14.32\ngini = 0.278\nsamples = 6\nvalue = [0, 5, 0, 0, 0, 1]"] ;
70 -> 71 ;
72 [label="gini = 0.0\nsamples = 5\nvalue = [0, 5, 0, 0, 0, 0]"] ;
71 -> 72 ;
73 [label="gini = 0.0\nsamples = 1\nvalue = [0, 0, 0, 0, 0, 1]"] ;
71 -> 73 ;
74 [label="X[5] <= 0.535\ngini = 0.444\nsamples = 6\nvalue = [0, 2, 4, 0, 0, 0]"] ;
70 -> 74 ;
75 [label="gini = 0.0\nsamples = 2\nvalue = [0, 2, 0, 0, 0, 0]"] ;
74 -> 75 ;
76 [label="gini = 0.0\nsamples = 4\nvalue = [0, 0, 4, 0, 0, 0]"] ;
74 -> 76 ;
77 [label="X[4] <= 72.62\ngini = 0.375\nsamples = 4\nvalue = [3, 1, 0, 0, 0, 0]"] ;
69 -> 77 ;
78 [label="gini = 0.0\nsamples = 1\nvalue = [0, 1, 0, 0, 0, 0]"] ;
77 -> 78 ;
79 [label="gini = 0.0\nsamples = 3\nvalue = [3, 0, 0, 0, 0, 0]"] ;
77 -> 79 ;
80 [label="X[8] <= 0.185\ngini = 0.177\nsamples = 21\nvalue = [1, 1, 0, 0, 0, 19]"] ;
0 -> 80 [labeldistance=2.5, labelangle=-45, headlabel="False"] ;
81 [label="X[2] <= 3.42\ngini = 0.095\nsamples = 20\nvalue = [1, 0, 0, 0, 0, 19]"] ;
80 -> 81 ;
82 [label="gini = 0.0\nsamples = 19\nvalue = [0, 0, 0, 0, 0, 19]"] ;
81 -> 82 ;
83 [label="gini = 0.0\nsamples = 1\nvalue = [1, 0, 0, 0, 0, 0]"] ;
81 -> 83 ;
84 [label="gini = 0.0\nsamples = 1\nvalue = [0, 1, 0, 0, 0, 0]"] ;
80 -> 84 ;
}
